Parsing file ../tests/t2802.nwt...
Parsed file ../tests/t2802.nwt.
a = 1
b = 2
c = 3
d = 4
e = 5
f = 6
g = 7
h = 8
i = 9
j = 10
k = 11
l = 12
m = 13
n = 14
o = 15
p = 16
q = 17
r = 18
s = 19
t = 20
u = 21
v = 22
w = 23
x = 24
y = 25
z = 26
var0 = 0
var1 = 0
var2 = 1
var3 = 1
var4 = 1
var5 = 0
var6 = 0
var7 = 1
var8 = 1
var9 = 1
var10 = 0
var11 = 1
var12 = 1
var13 = 1
var14 = 0
var15 = 0
var16 = 1
var17 = 0
var18 = 0
var19 = 0
var20 = 0
var21 = 0
var22 = 1
var23 = 1
var24 = 0
var25 = 1
var26 = 1
var27 = 1
var28 = 1
var29 = 1
var30 = 1
var31 = 0
var32 = 1
var33 = 1
var34 = 1
var35 = 1
var36 = 0
var37 = 1
var38 = 1
var39 = 1
var40 = 1
var41 = 0
var42 = 1
var43 = 1
var44 = 0
var45 = 1
var46 = 0
var47 = 1
var48 = 0
var49 = 0
var50 = 1
var51 = 0
var52 = 1
var53 = 0
var54 = 1
var55 = 1
var56 = 0
var57 = 0
var58 = 1
var59 = 1
var60 = 1
var61 = 1
var62 = 1
var63 = 0
var64 = 1
var65 = 1
var66 = 1
var67 = 1
var68 = 1
var69 = 1
var70 = 1
var71 = 0
var72 = 0
var73 = 1
var74 = 1
var75 = 1
var76 = 1
var77 = 1
var78 = 1
var79 = 0
var80 = 0
var81 = 1
var82 = 1
var83 = 0
var84 = 1
var85 = 1
var86 = 1
var87 = 1
var88 = 1
var89 = 1
var90 = 1
var91 = 1
var92 = 1
var93 = 1
var94 = 1
var95 = 0
var96 = 1
var97 = 0
var98 = 0
var99 = 1
var100 = 0
var101 = 0
var102 = 0
var103 = 0
var104 = 0
var105 = 1
var106 = 0
var107 = 0
var108 = 0
var109 = 1
var110 = 1
var111 = 1
var112 = 1
var113 = 0
var114 = 0
var115 = 1
var116 = 1
var117 = 1
var118 = 1
var119 = 0
var120 = 1
var121 = 0
var122 = 0
var123 = 0
var124 = 1
var125 = 1
var126 = 1
var127 = 0
var128 = 1
var129 = 0
var130 = 1
var131 = 1
var132 = 0
var133 = 1
var134 = 1
var135 = 0
var136 = 0
var137 = 1
var138 = 1
var139 = 1
var140 = 0
var141 = 0
var142 = 0
var143 = 1
var144 = 0
var145 = 0
var146 = 1
var147 = 0
var148 = 1
var149 = 1
var150 = 0
var151 = 1
var152 = 1
var153 = 1
var154 = 1
var155 = 1
var156 = 0
var157 = 1
var158 = 1
var159 = 0
var160 = 1
var161 = 0
var162 = 0
var163 = 1
var164 = 0
var165 = 1
var166 = 1
var167 = 0
var168 = 1
var169 = 0
var170 = 0
var171 = 1
var172 = 1
var173 = 0
var174 = 1
var175 = 1
var176 = 1
var177 = 1
var178 = 1
var179 = 1
var180 = 0
var181 = 0
var182 = 1
var183 = 1
var184 = 1
var185 = 1
var186 = 1
var187 = 1
var188 = 1
var189 = 1
var190 = 1
var191 = 1
var192 = 0
var193 = 0
var194 = 1
var195 = 1
var196 = 1
var197 = 1
var198 = 1
var199 = 1
var200 = 1
var201 = 1
var202 = 0
var203 = 0
var204 = 1
var205 = 0
var206 = 0
var207 = 1
var208 = 1
var209 = 1
var210 = 1
var211 = 1
var212 = 1
var213 = 1
var214 = 1
var215 = 0
var216 = 0
var217 = 1
var218 = 1
var219 = 1
var220 = 0
var221 = 1
var222 = 1
var223 = 0
var224 = 1
var225 = 0
var226 = 0
var227 = 1
var228 = 1
var229 = 0
var230 = 1
var231 = 0
var232 = 1
var233 = 1
var234 = 1
var235 = 1
var236 = 1
var237 = 0
var238 = 0
var239 = 0
var240 = 0
var241 = 1
var242 = 0
var243 = 0
var244 = 0
var245 = 1
var246 = 1
var247 = 1
var248 = 1
var249 = 0
var250 = 1
var251 = 1
var252 = 0
var253 = 0
var254 = 1
var255 = 1
var256 = 1
var257 = 1
var258 = 1
var259 = 1
var260 = 1
var261 = 0
var262 = 1
var263 = 0
var264 = 1
var265 = 1
var266 = 1
var267 = 1
var268 = 1
var269 = 1
var270 = 1
var271 = 1
var272 = 1
var273 = 0
var274 = 1
var275 = 0
var276 = 0
var277 = 1
var278 = 0
var279 = 0
var280 = 1
var281 = 1
var282 = 1
var283 = 1
var284 = 1
var285 = 0
var286 = 0
var287 = 0
var288 = 1
var289 = 0
var290 = 0
var291 = 1
var292 = 0
var293 = 1
var294 = 1
var295 = 1
var296 = 1
var297 = 0
var298 = 1
var299 = 1
var300 = 0
var301 = 1
var302 = 1
var303 = 1
var304 = 0
var305 = 1
var306 = 1
var307 = 0
var308 = 1
var309 = 1
var310 = 0
var311 = 1
var312 = 0
var313 = 0
var314 = 1
var315 = 1
var316 = 0
var317 = 1
var318 = 1
var319 = 1
var320 = 1
var321 = 0
var322 = 1
var323 = 1
var324 = 1
var325 = 0
var326 = 1
var327 = 1
var328 = 1
var329 = 1
var330 = 0
var331 = 1
var332 = 1
var333 = 1
var334 = 1
var335 = 0
var336 = 0
var337 = 1
var338 = 0
var339 = 0
var340 = 1
var341 = 0
var342 = 1
var343 = 0
var344 = 0
var345 = 1
var346 = 0
var347 = 1
var348 = 1
var349 = 1
var350 = 1
var351 = 0
var352 = 1
var353 = 0
var354 = 1
var355 = 1
var356 = 1
var357 = 0
var358 = 1
var359 = 1
var360 = 1
var361 = 0
var362 = 1
var363 = 1
var364 = 1
var365 = 0
var366 = 0
var367 = 0
var368 = 1
var369 = 1
var370 = 0
var371 = 1
var372 = 1
var373 = 0
var374 = 1
var375 = 0
var376 = 1
var377 = 0
var378 = 1
var379 = 1
var380 = 0
var381 = 1
var382 = 1
var383 = 1
var384 = 1
var385 = 1
var386 = 1
var387 = 0
var388 = 1
var389 = 1
var390 = 1
var391 = 1
var392 = 1
var393 = 0
var394 = 0
var395 = 1
var396 = 1
var397 = 0
var398 = 1
var399 = 1
var400 = 1
var401 = 1
var402 = 1
var403 = 1
var404 = 1
var405 = 1
var406 = 0
var407 = 1
var408 = 1
var409 = 1
var410 = 0
var411 = 0
var412 = 1
var413 = 0
var414 = 1
var415 = 1
var416 = 1
var417 = 0
var418 = 1
var419 = 1
var420 = 1
var421 = 1
var422 = 1
var423 = 1
var424 = 0
var425 = 0
var426 = 1
var427 = 1
var428 = 1
var429 = 0
var430 = 0
var431 = 0
var432 = 0
var433 = 1
var434 = 1
var435 = 0
var436 = 0
var437 = 1
var438 = 1
var439 = 1
var440 = 0
var441 = 1
var442 = 1
var443 = 1
var444 = 1
var445 = 1
var446 = 1
var447 = 0
var448 = 1
var449 = 0
var450 = 1
var451 = 1
var452 = 1
var453 = 1
var454 = 0
var455 = 1
var456 = 1
var457 = 0
var458 = 1
var459 = 1
var460 = 1
var461 = 1
var462 = 1
var463 = 1
var464 = 1
var465 = 0
var466 = 1
var467 = 1
var468 = 0
var469 = 0
var470 = 0
var471 = 1
var472 = 1
var473 = 1
var474 = 0
var475 = 1
var476 = 1
var477 = 1
var478 = 0
var479 = 1
var480 = 1
var481 = 1
var482 = 0
var483 = 1
var484 = 0
var485 = 0
var486 = 1
var487 = 0
var488 = 1
var489 = 1
var490 = 1
var491 = 0
var492 = 1
var493 = 0
var494 = 1
var495 = 1
var496 = 0
var497 = 1
var498 = 1
var499 = 1
var500 = 1
var501 = 1
var502 = 1
var503 = 0
var504 = 1
var505 = 1
var506 = 1
var507 = 0
var508 = 1
var509 = 0
var510 = 1
var511 = 1
var512 = 1
var513 = 1
var514 = 1
var515 = 1
var516 = 1
var517 = 1
var518 = 1
var519 = 0
var520 = 1
var521 = 1
var522 = 1
var523 = 1
var524 = 1
var525 = 1
var526 = 0
var527 = 1
var528 = 1
var529 = 1
var530 = 1
var531 = 1
var532 = 0
var533 = 1
var534 = 1
var535 = 0
var536 = 1
var537 = 0
var538 = 0
var539 = 1
var540 = 1
var541 = 0
var542 = 1
var543 = 1
var544 = 0
var545 = 1
var546 = 1
var547 = 1
var548 = 0
var549 = 1
var550 = 1
var551 = 0
var552 = 0
var553 = 1
var554 = 1
var555 = 0
var556 = 1
var557 = 0
var558 = 1
var559 = 1
var560 = 1
var561 = 1
var562 = 1
var563 = 1
var564 = 0
var565 = 1
var566 = 1
var567 = 1
var568 = 1
var569 = 1
var570 = 1
var571 = 1
var572 = 1
var573 = 1
var574 = 1
var575 = 1
var576 = 1
var577 = 1
var578 = 1
var579 = 0
var580 = 1
var581 = 0
var582 = 1
var583 = 1
var584 = 1
var585 = 1
var586 = 1
var587 = 0
var588 = 1
var589 = 0
var590 = 0
var591 = 0
var592 = 1
var593 = 0
var594 = 1
var595 = 1
var596 = 1
var597 = 1
var598 = 0
var599 = 0
var600 = 1
var601 = 1
var602 = 1
var603 = 0
var604 = 1
var605 = 1
var606 = 1
var607 = 1
var608 = 0
var609 = 1
var610 = 1
var611 = 1
var612 = 1
var613 = 1
var614 = 1
var615 = 1
var616 = 0
var617 = 1
var618 = 1
var619 = 1
var620 = 1
var621 = 1
var622 = 0
var623 = 0
var624 = 1
var625 = 1
var626 = 1
var627 = 0
var628 = 1
var629 = 1
var630 = 1
var631 = 1
var632 = 1
var633 = 1
var634 = 1
var635 = 0
var636 = 0
var637 = 1
var638 = 0
var639 = 1
var640 = 0
var641 = 1
var642 = 0
var643 = 1
var644 = 0
var645 = 1
var646 = 0
var647 = 0
var648 = 1
var649 = 1
var650 = 1
var651 = 0
var652 = 1
var653 = 0
var654 = 1
var655 = 0
var656 = 1
var657 = 1
var658 = 1
var659 = 1
var660 = 1
var661 = 0
var662 = 0
var663 = 1
var664 = 1
var665 = 0
var666 = 1
var667 = 1
var668 = 1
var669 = 0
var670 = 1
var671 = 0
var672 = 0
var673 = 0
var674 = 0
var675 = 1
var676 = 1
var677 = 0
var678 = 1
var679 = 0
var680 = 0
var681 = 0
var682 = 1
var683 = 0
var684 = 0
var685 = 0
var686 = 1
var687 = 0
var688 = 0
var689 = 1
var690 = 1
var691 = 1
var692 = 1
var693 = 0
var694 = 1
var695 = 1
var696 = 0
var697 = 1
var698 = 0
var699 = 1
var700 = 1
var701 = 0
var702 = 0
var703 = 0
var704 = 1
var705 = 1
var706 = 1
var707 = 1
var708 = 1
var709 = 1
var710 = 1
var711 = 1
var712 = 0
var713 = 1
var714 = 1
var715 = 1
var716 = 0
var717 = 1
var718 = 1
var719 = 1
var720 = 0
var721 = 0
var722 = 0
var723 = 0
var724 = 1
var725 = 1
var726 = 0
var727 = 1
var728 = 0
var729 = 1
var730 = 1
var731 = 0
var732 = 1
var733 = 1
var734 = 0
var735 = 1
var736 = 1
var737 = 0
var738 = 0
var739 = 1
var740 = 0
var741 = 1
var742 = 1
var743 = 0
var744 = 1
var745 = 0
var746 = 0
var747 = 0
var748 = 1
var749 = 1
var750 = 1
var751 = 1
var752 = 1
var753 = 1
var754 = 1
var755 = 1
var756 = 0
var757 = 0
var758 = 1
var759 = 1
var760 = 1
var761 = 1
var762 = 0
var763 = 1
var764 = 0
var765 = 1
var766 = 0
var767 = 1
var768 = 1
var769 = 1
var770 = 1
var771 = 1
var772 = 0
var773 = 1
var774 = 1
var775 = 1
var776 = 1
var777 = 1
var778 = 1
var779 = 0
var780 = 1
var781 = 0
var782 = 1
var783 = 1
var784 = 1
var785 = 0
var786 = 1
var787 = 0
var788 = 1
var789 = 1
var790 = 0
var791 = 0
var792 = 0
var793 = 1
var794 = 0
var795 = 1
var796 = 0
var797 = 1
var798 = 1
var799 = 1
var800 = 1
var801 = 0
var802 = 1
var803 = 1
var804 = 1
var805 = 0
var806 = 1
var807 = 0
var808 = 1
var809 = 1
var810 = 1
var811 = 1
var812 = 1
var813 = 1
var814 = 1
var815 = 1
var816 = 1
var817 = 1
var818 = 0
var819 = 1
var820 = 1
var821 = 1
var822 = 1
var823 = 1
var824 = 1
var825 = 1
var826 = 1
var827 = 0
var828 = 1
var829 = 0
var830 = 0
var831 = 1
var832 = 1
var833 = 0
var834 = 1
var835 = 1
var836 = 1
var837 = 1
var838 = 1
var839 = 1
var840 = 1
var841 = 1
var842 = 1
var843 = 1
var844 = 0
var845 = 1
var846 = 0
var847 = 1
var848 = 0
var849 = 1
var850 = 1
var851 = 1
var852 = 1
var853 = 0
var854 = 1
var855 = 1
var856 = 1
var857 = 1
var858 = 1
var859 = 0
var860 = 1
var861 = 0
var862 = 1
var863 = 0
var864 = 0
var865 = 1
var866 = 1
var867 = 1
var868 = 1
var869 = 1
var870 = 1
var871 = 1
var872 = 0
var873 = 1
var874 = 1
var875 = 0
var876 = 0
var877 = 1
var878 = 0
var879 = 1
var880 = 1
var881 = 1
var882 = 0
var883 = 1
var884 = 1
var885 = 0
var886 = 1
var887 = 1
var888 = 1
var889 = 0
var890 = 0
var891 = 1
var892 = 1
var893 = 0
var894 = 1
var895 = 1
var896 = 1
var897 = 1
var898 = 0
var899 = 1
var900 = 1
var901 = 1
var902 = 1
var903 = 1
var904 = 1
var905 = 1
var906 = 1
var907 = 1
var908 = 1
var909 = 0
var910 = 0
var911 = 1
var912 = 1
var913 = 1
var914 = 0
var915 = 1
var916 = 0
var917 = 1
var918 = 1
var919 = 1
var920 = 0
var921 = 1
var922 = 1
var923 = 1
var924 = 1
var925 = 1
var926 = 1
var927 = 1
var928 = 0
var929 = 1
var930 = 0
var931 = 1
var932 = 1
var933 = 1
var934 = 0
var935 = 0
var936 = 0
var937 = 1
var938 = 1
var939 = 1
var940 = 1
var941 = 0
var942 = 0
var943 = 1
var944 = 1
var945 = 1
var946 = 1
var947 = 1
var948 = 1
var949 = 1
var950 = 1
var951 = 1
var952 = 1
var953 = 1
var954 = 1
var955 = 0
var956 = 0
var957 = 1
var958 = 1
var959 = 0
var960 = 1
var961 = 1
var962 = 1
var963 = 0
var964 = 1
var965 = 1
var966 = 1
var967 = 0
var968 = 1
var969 = 0
var970 = 1
var971 = 1
var972 = 1
var973 = 1
var974 = 1
var975 = 1
var976 = 0
var977 = 0
var978 = 0
var979 = 1
var980 = 1
var981 = 1
var982 = 1
var983 = 0
var984 = 1
var985 = 1
var986 = 0
var987 = 1
var988 = 1
var989 = 1
var990 = 0
var991 = 1
var992 = 1
var993 = 1
var994 = 0
var995 = 0
var996 = 1
var997 = 1
var998 = 0
var999 = 1
Root Symbol Table:
----------------
int a: 1
int b: 2
int c: 3
int d: 4
int e: 5
int f: 6
int g: 7
int h: 8
int i: 9
int j: 10
int k: 11
int l: 12
int m: 13
int n: 14
int o: 15
int p: 16
int q: 17
int r: 18
int s: 19
int t: 20
int u: 21
int v: 22
int var0: 0
int var1: 0
int var10: 0
int var100: 0
int var101: 0
int var102: 0
int var103: 0
int var104: 0
int var105: 1
int var106: 0
int var107: 0
int var108: 0
int var109: 1
int var11: 1
int var110: 1
int var111: 1
int var112: 1
int var113: 0
int var114: 0
int var115: 1
int var116: 1
int var117: 1
int var118: 1
int var119: 0
int var12: 1
int var120: 1
int var121: 0
int var122: 0
int var123: 0
int var124: 1
int var125: 1
int var126: 1
int var127: 0
int var128: 1
int var129: 0
int var13: 1
int var130: 1
int var131: 1
int var132: 0
int var133: 1
int var134: 1
int var135: 0
int var136: 0
int var137: 1
int var138: 1
int var139: 1
int var14: 0
int var140: 0
int var141: 0
int var142: 0
int var143: 1
int var144: 0
int var145: 0
int var146: 1
int var147: 0
int var148: 1
int var149: 1
int var15: 0
int var150: 0
int var151: 1
int var152: 1
int var153: 1
int var154: 1
int var155: 1
int var156: 0
int var157: 1
int var158: 1
int var159: 0
int var16: 1
int var160: 1
int var161: 0
int var162: 0
int var163: 1
int var164: 0
int var165: 1
int var166: 1
int var167: 0
int var168: 1
int var169: 0
int var17: 0
int var170: 0
int var171: 1
int var172: 1
int var173: 0
int var174: 1
int var175: 1
int var176: 1
int var177: 1
int var178: 1
int var179: 1
int var18: 0
int var180: 0
int var181: 0
int var182: 1
int var183: 1
int var184: 1
int var185: 1
int var186: 1
int var187: 1
int var188: 1
int var189: 1
int var19: 0
int var190: 1
int var191: 1
int var192: 0
int var193: 0
int var194: 1
int var195: 1
int var196: 1
int var197: 1
int var198: 1
int var199: 1
int var2: 1
int var20: 0
int var200: 1
int var201: 1
int var202: 0
int var203: 0
int var204: 1
int var205: 0
int var206: 0
int var207: 1
int var208: 1
int var209: 1
int var21: 0
int var210: 1
int var211: 1
int var212: 1
int var213: 1
int var214: 1
int var215: 0
int var216: 0
int var217: 1
int var218: 1
int var219: 1
int var22: 1
int var220: 0
int var221: 1
int var222: 1
int var223: 0
int var224: 1
int var225: 0
int var226: 0
int var227: 1
int var228: 1
int var229: 0
int var23: 1
int var230: 1
int var231: 0
int var232: 1
int var233: 1
int var234: 1
int var235: 1
int var236: 1
int var237: 0
int var238: 0
int var239: 0
int var24: 0
int var240: 0
int var241: 1
int var242: 0
int var243: 0
int var244: 0
int var245: 1
int var246: 1
int var247: 1
int var248: 1
int var249: 0
int var25: 1
int var250: 1
int var251: 1
int var252: 0
int var253: 0
int var254: 1
int var255: 1
int var256: 1
int var257: 1
int var258: 1
int var259: 1
int var26: 1
int var260: 1
int var261: 0
int var262: 1
int var263: 0
int var264: 1
int var265: 1
int var266: 1
int var267: 1
int var268: 1
int var269: 1
int var27: 1
int var270: 1
int var271: 1
int var272: 1
int var273: 0
int var274: 1
int var275: 0
int var276: 0
int var277: 1
int var278: 0
int var279: 0
int var28: 1
int var280: 1
int var281: 1
int var282: 1
int var283: 1
int var284: 1
int var285: 0
int var286: 0
int var287: 0
int var288: 1
int var289: 0
int var29: 1
int var290: 0
int var291: 1
int var292: 0
int var293: 1
int var294: 1
int var295: 1
int var296: 1
int var297: 0
int var298: 1
int var299: 1
int var3: 1
int var30: 1
int var300: 0
int var301: 1
int var302: 1
int var303: 1
int var304: 0
int var305: 1
int var306: 1
int var307: 0
int var308: 1
int var309: 1
int var31: 0
int var310: 0
int var311: 1
int var312: 0
int var313: 0
int var314: 1
int var315: 1
int var316: 0
int var317: 1
int var318: 1
int var319: 1
int var32: 1
int var320: 1
int var321: 0
int var322: 1
int var323: 1
int var324: 1
int var325: 0
int var326: 1
int var327: 1
int var328: 1
int var329: 1
int var33: 1
int var330: 0
int var331: 1
int var332: 1
int var333: 1
int var334: 1
int var335: 0
int var336: 0
int var337: 1
int var338: 0
int var339: 0
int var34: 1
int var340: 1
int var341: 0
int var342: 1
int var343: 0
int var344: 0
int var345: 1
int var346: 0
int var347: 1
int var348: 1
int var349: 1
int var35: 1
int var350: 1
int var351: 0
int var352: 1
int var353: 0
int var354: 1
int var355: 1
int var356: 1
int var357: 0
int var358: 1
int var359: 1
int var36: 0
int var360: 1
int var361: 0
int var362: 1
int var363: 1
int var364: 1
int var365: 0
int var366: 0
int var367: 0
int var368: 1
int var369: 1
int var37: 1
int var370: 0
int var371: 1
int var372: 1
int var373: 0
int var374: 1
int var375: 0
int var376: 1
int var377: 0
int var378: 1
int var379: 1
int var38: 1
int var380: 0
int var381: 1
int var382: 1
int var383: 1
int var384: 1
int var385: 1
int var386: 1
int var387: 0
int var388: 1
int var389: 1
int var39: 1
int var390: 1
int var391: 1
int var392: 1
int var393: 0
int var394: 0
int var395: 1
int var396: 1
int var397: 0
int var398: 1
int var399: 1
int var4: 1
int var40: 1
int var400: 1
int var401: 1
int var402: 1
int var403: 1
int var404: 1
int var405: 1
int var406: 0
int var407: 1
int var408: 1
int var409: 1
int var41: 0
int var410: 0
int var411: 0
int var412: 1
int var413: 0
int var414: 1
int var415: 1
int var416: 1
int var417: 0
int var418: 1
int var419: 1
int var42: 1
int var420: 1
int var421: 1
int var422: 1
int var423: 1
int var424: 0
int var425: 0
int var426: 1
int var427: 1
int var428: 1
int var429: 0
int var43: 1
int var430: 0
int var431: 0
int var432: 0
int var433: 1
int var434: 1
int var435: 0
int var436: 0
int var437: 1
int var438: 1
int var439: 1
int var44: 0
int var440: 0
int var441: 1
int var442: 1
int var443: 1
int var444: 1
int var445: 1
int var446: 1
int var447: 0
int var448: 1
int var449: 0
int var45: 1
int var450: 1
int var451: 1
int var452: 1
int var453: 1
int var454: 0
int var455: 1
int var456: 1
int var457: 0
int var458: 1
int var459: 1
int var46: 0
int var460: 1
int var461: 1
int var462: 1
int var463: 1
int var464: 1
int var465: 0
int var466: 1
int var467: 1
int var468: 0
int var469: 0
int var47: 1
int var470: 0
int var471: 1
int var472: 1
int var473: 1
int var474: 0
int var475: 1
int var476: 1
int var477: 1
int var478: 0
int var479: 1
int var48: 0
int var480: 1
int var481: 1
int var482: 0
int var483: 1
int var484: 0
int var485: 0
int var486: 1
int var487: 0
int var488: 1
int var489: 1
int var49: 0
int var490: 1
int var491: 0
int var492: 1
int var493: 0
int var494: 1
int var495: 1
int var496: 0
int var497: 1
int var498: 1
int var499: 1
int var5: 0
int var50: 1
int var500: 1
int var501: 1
int var502: 1
int var503: 0
int var504: 1
int var505: 1
int var506: 1
int var507: 0
int var508: 1
int var509: 0
int var51: 0
int var510: 1
int var511: 1
int var512: 1
int var513: 1
int var514: 1
int var515: 1
int var516: 1
int var517: 1
int var518: 1
int var519: 0
int var52: 1
int var520: 1
int var521: 1
int var522: 1
int var523: 1
int var524: 1
int var525: 1
int var526: 0
int var527: 1
int var528: 1
int var529: 1
int var53: 0
int var530: 1
int var531: 1
int var532: 0
int var533: 1
int var534: 1
int var535: 0
int var536: 1
int var537: 0
int var538: 0
int var539: 1
int var54: 1
int var540: 1
int var541: 0
int var542: 1
int var543: 1
int var544: 0
int var545: 1
int var546: 1
int var547: 1
int var548: 0
int var549: 1
int var55: 1
int var550: 1
int var551: 0
int var552: 0
int var553: 1
int var554: 1
int var555: 0
int var556: 1
int var557: 0
int var558: 1
int var559: 1
int var56: 0
int var560: 1
int var561: 1
int var562: 1
int var563: 1
int var564: 0
int var565: 1
int var566: 1
int var567: 1
int var568: 1
int var569: 1
int var57: 0
int var570: 1
int var571: 1
int var572: 1
int var573: 1
int var574: 1
int var575: 1
int var576: 1
int var577: 1
int var578: 1
int var579: 0
int var58: 1
int var580: 1
int var581: 0
int var582: 1
int var583: 1
int var584: 1
int var585: 1
int var586: 1
int var587: 0
int var588: 1
int var589: 0
int var59: 1
int var590: 0
int var591: 0
int var592: 1
int var593: 0
int var594: 1
int var595: 1
int var596: 1
int var597: 1
int var598: 0
int var599: 0
int var6: 0
int var60: 1
int var600: 1
int var601: 1
int var602: 1
int var603: 0
int var604: 1
int var605: 1
int var606: 1
int var607: 1
int var608: 0
int var609: 1
int var61: 1
int var610: 1
int var611: 1
int var612: 1
int var613: 1
int var614: 1
int var615: 1
int var616: 0
int var617: 1
int var618: 1
int var619: 1
int var62: 1
int var620: 1
int var621: 1
int var622: 0
int var623: 0
int var624: 1
int var625: 1
int var626: 1
int var627: 0
int var628: 1
int var629: 1
int var63: 0
int var630: 1
int var631: 1
int var632: 1
int var633: 1
int var634: 1
int var635: 0
int var636: 0
int var637: 1
int var638: 0
int var639: 1
int var64: 1
int var640: 0
int var641: 1
int var642: 0
int var643: 1
int var644: 0
int var645: 1
int var646: 0
int var647: 0
int var648: 1
int var649: 1
int var65: 1
int var650: 1
int var651: 0
int var652: 1
int var653: 0
int var654: 1
int var655: 0
int var656: 1
int var657: 1
int var658: 1
int var659: 1
int var66: 1
int var660: 1
int var661: 0
int var662: 0
int var663: 1
int var664: 1
int var665: 0
int var666: 1
int var667: 1
int var668: 1
int var669: 0
int var67: 1
int var670: 1
int var671: 0
int var672: 0
int var673: 0
int var674: 0
int var675: 1
int var676: 1
int var677: 0
int var678: 1
int var679: 0
int var68: 1
int var680: 0
int var681: 0
int var682: 1
int var683: 0
int var684: 0
int var685: 0
int var686: 1
int var687: 0
int var688: 0
int var689: 1
int var69: 1
int var690: 1
int var691: 1
int var692: 1
int var693: 0
int var694: 1
int var695: 1
int var696: 0
int var697: 1
int var698: 0
int var699: 1
int var7: 1
int var70: 1
int var700: 1
int var701: 0
int var702: 0
int var703: 0
int var704: 1
int var705: 1
int var706: 1
int var707: 1
int var708: 1
int var709: 1
int var71: 0
int var710: 1
int var711: 1
int var712: 0
int var713: 1
int var714: 1
int var715: 1
int var716: 0
int var717: 1
int var718: 1
int var719: 1
int var72: 0
int var720: 0
int var721: 0
int var722: 0
int var723: 0
int var724: 1
int var725: 1
int var726: 0
int var727: 1
int var728: 0
int var729: 1
int var73: 1
int var730: 1
int var731: 0
int var732: 1
int var733: 1
int var734: 0
int var735: 1
int var736: 1
int var737: 0
int var738: 0
int var739: 1
int var74: 1
int var740: 0
int var741: 1
int var742: 1
int var743: 0
int var744: 1
int var745: 0
int var746: 0
int var747: 0
int var748: 1
int var749: 1
int var75: 1
int var750: 1
int var751: 1
int var752: 1
int var753: 1
int var754: 1
int var755: 1
int var756: 0
int var757: 0
int var758: 1
int var759: 1
int var76: 1
int var760: 1
int var761: 1
int var762: 0
int var763: 1
int var764: 0
int var765: 1
int var766: 0
int var767: 1
int var768: 1
int var769: 1
int var77: 1
int var770: 1
int var771: 1
int var772: 0
int var773: 1
int var774: 1
int var775: 1
int var776: 1
int var777: 1
int var778: 1
int var779: 0
int var78: 1
int var780: 1
int var781: 0
int var782: 1
int var783: 1
int var784: 1
int var785: 0
int var786: 1
int var787: 0
int var788: 1
int var789: 1
int var79: 0
int var790: 0
int var791: 0
int var792: 0
int var793: 1
int var794: 0
int var795: 1
int var796: 0
int var797: 1
int var798: 1
int var799: 1
int var8: 1
int var80: 0
int var800: 1
int var801: 0
int var802: 1
int var803: 1
int var804: 1
int var805: 0
int var806: 1
int var807: 0
int var808: 1
int var809: 1
int var81: 1
int var810: 1
int var811: 1
int var812: 1
int var813: 1
int var814: 1
int var815: 1
int var816: 1
int var817: 1
int var818: 0
int var819: 1
int var82: 1
int var820: 1
int var821: 1
int var822: 1
int var823: 1
int var824: 1
int var825: 1
int var826: 1
int var827: 0
int var828: 1
int var829: 0
int var83: 0
int var830: 0
int var831: 1
int var832: 1
int var833: 0
int var834: 1
int var835: 1
int var836: 1
int var837: 1
int var838: 1
int var839: 1
int var84: 1
int var840: 1
int var841: 1
int var842: 1
int var843: 1
int var844: 0
int var845: 1
int var846: 0
int var847: 1
int var848: 0
int var849: 1
int var85: 1
int var850: 1
int var851: 1
int var852: 1
int var853: 0
int var854: 1
int var855: 1
int var856: 1
int var857: 1
int var858: 1
int var859: 0
int var86: 1
int var860: 1
int var861: 0
int var862: 1
int var863: 0
int var864: 0
int var865: 1
int var866: 1
int var867: 1
int var868: 1
int var869: 1
int var87: 1
int var870: 1
int var871: 1
int var872: 0
int var873: 1
int var874: 1
int var875: 0
int var876: 0
int var877: 1
int var878: 0
int var879: 1
int var88: 1
int var880: 1
int var881: 1
int var882: 0
int var883: 1
int var884: 1
int var885: 0
int var886: 1
int var887: 1
int var888: 1
int var889: 0
int var89: 1
int var890: 0
int var891: 1
int var892: 1
int var893: 0
int var894: 1
int var895: 1
int var896: 1
int var897: 1
int var898: 0
int var899: 1
int var9: 1
int var90: 1
int var900: 1
int var901: 1
int var902: 1
int var903: 1
int var904: 1
int var905: 1
int var906: 1
int var907: 1
int var908: 1
int var909: 0
int var91: 1
int var910: 0
int var911: 1
int var912: 1
int var913: 1
int var914: 0
int var915: 1
int var916: 0
int var917: 1
int var918: 1
int var919: 1
int var92: 1
int var920: 0
int var921: 1
int var922: 1
int var923: 1
int var924: 1
int var925: 1
int var926: 1
int var927: 1
int var928: 0
int var929: 1
int var93: 1
int var930: 0
int var931: 1
int var932: 1
int var933: 1
int var934: 0
int var935: 0
int var936: 0
int var937: 1
int var938: 1
int var939: 1
int var94: 1
int var940: 1
int var941: 0
int var942: 0
int var943: 1
int var944: 1
int var945: 1
int var946: 1
int var947: 1
int var948: 1
int var949: 1
int var95: 0
int var950: 1
int var951: 1
int var952: 1
int var953: 1
int var954: 1
int var955: 0
int var956: 0
int var957: 1
int var958: 1
int var959: 0
int var96: 1
int var960: 1
int var961: 1
int var962: 1
int var963: 0
int var964: 1
int var965: 1
int var966: 1
int var967: 0
int var968: 1
int var969: 0
int var97: 0
int var970: 1
int var971: 1
int var972: 1
int var973: 1
int var974: 1
int var975: 1
int var976: 0
int var977: 0
int var978: 0
int var979: 1
int var98: 0
int var980: 1
int var981: 1
int var982: 1
int var983: 0
int var984: 1
int var985: 1
int var986: 0
int var987: 1
int var988: 1
int var989: 1
int var99: 1
int var990: 0
int var991: 1
int var992: 1
int var993: 1
int var994: 0
int var995: 0
int var996: 1
int var997: 1
int var998: 0
int var999: 1
int w: 23
int x: 24
int y: 25
int z: 26

Root Type Table:
----------------
